Language model created by QuickLM on Sun Jul 29 17:38:00 EDT 2018
Copyright (c) 1996-2010 Carnegie Mellon University and Alexander I. Rudnicky

The model is in standard ARPA format, designed by Doug Paul while he was at MITRE.

The code that was used to produce this language model is available in Open Source.
Please visit http://www.speech.cs.cmu.edu/tools/ for more information

The (fixed) discount mass is 0.5. The backoffs are computed using the ratio method.
This model based on a corpus of 34 sentences and 48 words

\data\
ngram 1=48
ngram 2=89
ngram 3=110

\1-grams:
-1.1744 </s> -0.3010
-1.1744 <s> -0.2626
-1.9277 AND -0.2645
-2.2287 ATTACH -0.2915
-1.8028 BAR -0.2889
-1.8028 BASE -0.2691
-2.7059 BLUE -0.2959
-2.4048 BREAD -0.2709
-2.0069 BUILD -0.2924
-2.7059 CANCEL -0.2709
-2.4048 COLORFUL -0.2915
-2.7059 CONTINUE -0.2709
-2.7059 CUP -0.2993
-2.4048 EKET -0.2709
-1.9277 FOR -0.2862
-2.7059 FRONT -0.3002
-1.9277 GET -0.2941
-2.0069 GREEN -0.2959
-2.7059 IN -0.3002
-2.7059 LEFT -0.2993
-1.9277 LEG -0.2691
-2.7059 LETTUCE -0.2709
-2.4048 MAGENTA -0.2941
-2.7059 MAKE -0.2941
-2.7059 MEAT -0.2967
-2.7059 OF -0.3002
-1.8028 ON -0.2700
-2.7059 ONTO -0.2700
-2.0069 OR -0.2700
-2.4048 ORANGE -0.2915
-2.7059 PAUSE -0.2709
-2.4048 PINK -0.2941
-1.5298 PLACE -0.2700
-2.7059 PLATE -0.2709
-2.2287 PURPLE -0.2915
-1.8028 RECIPE -0.2654
-2.7059 RIGHT -0.2993
-2.2287 SANDWICH -0.2654
-2.7059 SOLID -0.2915
-2.7059 STORE -0.2941
-2.7059 SUGAR -0.2959
-1.9277 TEA -0.2691
-1.1618 THE -0.2626
-2.4048 THEN -0.2673
-2.4048 TIME -0.2709
-1.6645 TOP -0.2589
-2.1038 YELLOW -0.2941
-2.7059 YOU -0.2709

\2-grams:
-1.8325 <s> ATTACH 0.0000
-1.3554 <s> BUILD 0.0000
-1.8325 <s> CANCEL 0.0000
-1.8325 <s> CONTINUE 0.0000
-1.0544 <s> GET 0.0000
-1.8325 <s> MAKE 0.0000
-1.8325 <s> PAUSE 0.0000
-0.6564 <s> PLACE 0.0000
-1.5315 <s> SANDWICH 0.0000
-1.8325 <s> STORE 0.0000
-1.5315 <s> TEA 0.0000
-1.0792 AND TEA -0.1249
-0.3802 AND THE -0.2413
-0.3010 ATTACH TOP -0.2374
-0.6021 BAR AND -0.0669
-0.6021 BAR ON 0.0000
-0.3590 BASE </s> -0.3010
-1.2041 BASE THEN -0.1761
-0.3010 BLUE LEG -0.2632
-0.3010 BREAD </s> -0.3010
-0.5229 BUILD BASE 0.0000
-0.6990 BUILD EKET 0.0000
-0.3010 CANCEL </s> -0.3010
-0.3010 COLORFUL TOP -0.1047
-0.3010 CONTINUE </s> -0.3010
-0.3010 CUP THEN -0.1761
-0.3010 EKET </s> -0.3010
-1.0792 FOR ATTACH 0.0000
-0.7782 FOR BUILD 0.0000
-1.0792 FOR SANDWICH -0.1249
-0.7782 FOR TEA 0.0000
-0.3010 FRONT OF 0.0000
-0.3010 GET RECIPE -0.0969
-0.3010 GREEN LEG -0.0669
-0.3010 IN FRONT 0.0000
-0.3010 LEFT BREAD 0.0000
-0.4771 LEG </s> -0.3010
-1.0792 LEG IN 0.0000
-1.0792 LEG ONTO 0.0000
-0.3010 LETTUCE </s> -0.3010
-0.3010 MAGENTA BAR 0.0000
-0.3010 MAKE RECIPE -0.2430
-0.3010 MEAT OR 0.0000
-0.3010 OF YOU 0.0000
-0.3010 ON THE -0.2341
-0.3010 ONTO THE -0.2688
-0.3010 OR THE -0.2413
-0.3010 ORANGE TOP -0.1047
-0.3010 PAUSE </s> -0.3010
-0.3010 PINK BAR 0.0000
-0.3010 PLACE THE -0.0994
-0.3010 PLATE </s> -0.3010
-0.3010 PURPLE TOP -0.1047
-0.9031 RECIPE </s> -0.3010
-0.4260 RECIPE FOR 0.0000
-0.3010 RIGHT BREAD 0.0000
-0.4771 SANDWICH </s> -0.3010
-0.7782 SANDWICH AND -0.2632
-0.3010 SOLID TOP -0.2139
-0.3010 STORE RECIPE -0.2430
-0.3010 SUGAR AND -0.0669
-0.4771 TEA </s> -0.3010
-0.7782 TEA TIME 0.0000
-1.1461 THE BASE -0.0512
-1.8451 THE BLUE 0.0000
-1.5441 THE COLORFUL 0.0000
-1.8451 THE CUP 0.0000
-1.1461 THE GREEN 0.0000
-1.8451 THE LEFT 0.0000
-1.8451 THE LETTUCE 0.0000
-1.5441 THE MAGENTA 0.0000
-1.8451 THE MEAT 0.0000
-1.5441 THE ORANGE 0.0000
-1.5441 THE PINK 0.0000
-1.8451 THE PLATE 0.0000
-1.3680 THE PURPLE 0.0000
-1.8451 THE RIGHT 0.0000
-1.8451 THE SOLID 0.0000
-1.8451 THE SUGAR 0.0000
-1.8451 THE TEA -0.1249
-1.2430 THE YELLOW 0.0000
-0.6021 THEN ATTACH 0.0000
-0.6021 THEN THE -0.2948
-0.3010 TIME </s> -0.3010
-0.8653 TOP </s> -0.3010
-0.7404 TOP ON 0.0000
-0.7404 TOP OR 0.0000
-0.3010 YELLOW BAR 0.0000
-0.3010 YOU </s> -0.3010

\3-grams:
-0.3010 <s> ATTACH TOP
-0.4771 <s> BUILD BASE
-0.7782 <s> BUILD EKET
-0.3010 <s> CANCEL </s>
-0.3010 <s> CONTINUE </s>
-0.3010 <s> GET RECIPE
-0.3010 <s> MAKE RECIPE
-0.3010 <s> PAUSE </s>
-0.3010 <s> PLACE THE
-0.6021 <s> SANDWICH </s>
-0.6021 <s> SANDWICH AND
-0.3010 <s> STORE RECIPE
-0.6021 <s> TEA </s>
-0.6021 <s> TEA TIME
-0.3010 AND TEA </s>
-1.0000 AND THE MAGENTA
-1.0000 AND THE PINK
-1.0000 AND THE TEA
-0.6990 AND THE YELLOW
-0.3010 ATTACH TOP </s>
-0.3010 BAR AND THE
-0.3010 BAR ON THE
-0.3010 BASE THEN ATTACH
-0.3010 BLUE LEG ONTO
-0.4771 BUILD BASE </s>
-0.7782 BUILD BASE THEN
-0.3010 BUILD EKET </s>
-0.6021 COLORFUL TOP ON
-0.6021 COLORFUL TOP OR
-0.3010 CUP THEN THE
-0.3010 FOR ATTACH TOP
-0.6021 FOR BUILD BASE
-0.6021 FOR BUILD EKET
-0.3010 FOR SANDWICH </s>
-0.6021 FOR TEA </s>
-0.6021 FOR TEA TIME
-0.3010 FRONT OF YOU
-0.3010 GET RECIPE FOR
-0.3979 GREEN LEG </s>
-1.0000 GREEN LEG IN
-0.3010 IN FRONT OF
-0.3010 LEFT BREAD </s>
-0.3010 LEG IN FRONT
-0.3010 LEG ONTO THE
-0.6021 MAGENTA BAR AND
-0.6021 MAGENTA BAR ON
-0.3010 MAKE RECIPE </s>
-0.3010 MEAT OR THE
-0.3010 OF YOU </s>
-0.6021 ON THE BASE
-0.6021 ON THE GREEN
-0.3010 ONTO THE BASE
-1.0000 OR THE COLORFUL
-1.0000 OR THE LETTUCE
-1.0000 OR THE ORANGE
-1.0000 OR THE PURPLE
-1.0000 OR THE SOLID
-0.6021 ORANGE TOP ON
-0.6021 ORANGE TOP OR
-0.6021 PINK BAR AND
-0.6021 PINK BAR ON
-1.4771 PLACE THE BLUE
-1.4771 PLACE THE COLORFUL
-1.4771 PLACE THE CUP
-1.4771 PLACE THE GREEN
-1.4771 PLACE THE LEFT
-1.4771 PLACE THE MAGENTA
-1.4771 PLACE THE MEAT
-1.4771 PLACE THE ORANGE
-1.4771 PLACE THE PINK
-1.4771 PLACE THE PLATE
-1.1761 PLACE THE PURPLE
-1.4771 PLACE THE RIGHT
-1.1761 PLACE THE YELLOW
-0.7782 PURPLE TOP ON
-0.4771 PURPLE TOP OR
-1.0792 RECIPE FOR ATTACH
-0.7782 RECIPE FOR BUILD
-1.0792 RECIPE FOR SANDWICH
-0.7782 RECIPE FOR TEA
-0.3010 RIGHT BREAD </s>
-0.3010 SANDWICH AND TEA
-0.3010 SOLID TOP ON
-0.3010 STORE RECIPE </s>
-0.3010 SUGAR AND THE
-0.3010 TEA TIME </s>
-0.3010 THE BASE </s>
-0.3010 THE BLUE LEG
-0.3010 THE COLORFUL TOP
-0.3010 THE CUP THEN
-0.3010 THE GREEN LEG
-0.3010 THE LEFT BREAD
-0.3010 THE LETTUCE </s>
-0.3010 THE MAGENTA BAR
-0.3010 THE MEAT OR
-0.3010 THE ORANGE TOP
-0.3010 THE PINK BAR
-0.3010 THE PLATE </s>
-0.3010 THE PURPLE TOP
-0.3010 THE RIGHT BREAD
-0.3010 THE SOLID TOP
-0.3010 THE SUGAR AND
-0.3010 THE TEA </s>
-0.3010 THE YELLOW BAR
-0.3010 THEN ATTACH TOP
-0.3010 THEN THE SUGAR
-0.3010 TOP ON THE
-0.3010 TOP OR THE
-0.6021 YELLOW BAR AND
-0.6021 YELLOW BAR ON

\end\
