Language model created by QuickLM on Fri Jul 20 16:52:56 EDT 2018
Copyright (c) 1996-2010 Carnegie Mellon University and Alexander I. Rudnicky

The model is in standard ARPA format, designed by Doug Paul while he was at MITRE.

The code that was used to produce this language model is available in Open Source.
Please visit http://www.speech.cs.cmu.edu/tools/ for more information

The (fixed) discount mass is 0.5. The backoffs are computed using the ratio method.
This model based on a corpus of 28 sentences and 45 words

\data\
ngram 1=45
ngram 2=83
ngram 3=89

\1-grams:
-1.0919 </s> -0.3010
-1.0919 <s> -0.2519
-2.0620 AND -0.2712
-2.0620 ATTACH -0.2947
-2.2380 BAR -0.2947
-1.8401 BASE -0.2616
-2.5391 BLUE -0.2972
-2.2380 BREAD -0.2644
-1.8401 BUILD -0.2922
-2.5391 CANCEL -0.2644
-2.5391 COLORFUL -0.2947
-2.5391 CONTINUE -0.2644
-2.5391 CUP -0.2985
-2.2380 EKET -0.2644
-1.7609 FOR -0.2791
-2.5391 FRONT -0.2998
-1.7609 GET -0.2909
-2.2380 GREEN -0.2972
-2.5391 IN -0.2998
-2.5391 LEFT -0.2985
-2.0620 LEG -0.2616
-2.5391 LETTUCE -0.2644
-2.5391 MAKE -0.2909
-2.5391 MEAT -0.2985
-2.5391 OF -0.2998
-2.2380 ON -0.2791
-2.5391 ONTO -0.2791
-2.2380 OR -0.2791
-2.5391 PAUSE -0.2644
-2.5391 PINK -0.2985
-1.5848 PLACE -0.2791
-2.5391 PLATE -0.2644
-1.6360 RECIPE -0.2561
-2.5391 RIGHT -0.2985
-2.0620 SANDWICH -0.2603
-2.5391 SOLID -0.2947
-2.5391 STORE -0.2909
-2.5391 SUGAR -0.2972
-1.7609 TEA -0.2616
-1.3086 THE -0.2685
-2.2380 THEN -0.2752
-2.2380 TIME -0.2644
-1.8401 TOP -0.2589
-2.5391 YELLOW -0.2985
-2.5391 YOU -0.2644

\2-grams:
-1.7482 <s> ATTACH 0.0000
-1.2711 <s> BUILD 0.0000
-1.7482 <s> CANCEL 0.0000
-1.7482 <s> CONTINUE 0.0000
-0.9700 <s> GET 0.0000
-1.7482 <s> MAKE 0.0000
-1.7482 <s> PAUSE 0.0000
-0.7939 <s> PLACE 0.0000
-1.4472 <s> SANDWICH 0.0000
-1.7482 <s> STORE 0.0000
-1.4472 <s> TEA 0.0000
-0.7782 AND TEA -0.1249
-0.4771 AND THE -0.2747
-0.3010 ATTACH TOP -0.1461
-0.6021 BAR AND -0.1249
-0.6021 BAR ON 0.0000
-0.3979 BASE </s> -0.3010
-1.0000 BASE THEN -0.1761
-0.3010 BLUE LEG -0.2218
-0.3010 BREAD </s> -0.3010
-0.5229 BUILD BASE 0.0000
-0.6990 BUILD EKET 0.0000
-0.3010 CANCEL </s> -0.3010
-0.3010 COLORFUL TOP -0.2553
-0.3010 CONTINUE </s> -0.3010
-0.3010 CUP THEN -0.1761
-0.3010 EKET </s> -0.3010
-1.0792 FOR ATTACH 0.0000
-0.7782 FOR BUILD 0.0000
-1.0792 FOR SANDWICH -0.1249
-0.7782 FOR TEA 0.0000
-0.3010 FRONT OF 0.0000
-0.3010 GET RECIPE -0.0969
-0.3010 GREEN LEG -0.1249
-0.3010 IN FRONT 0.0000
-0.3010 LEFT BREAD 0.0000
-0.7782 LEG </s> -0.3010
-0.7782 LEG IN 0.0000
-0.7782 LEG ONTO 0.0000
-0.3010 LETTUCE </s> -0.3010
-0.3010 MAKE RECIPE -0.2430
-0.3010 MEAT OR 0.0000
-0.3010 OF YOU 0.0000
-0.3010 ON THE -0.2467
-0.3010 ONTO THE -0.2747
-0.3010 OR THE -0.2747
-0.3010 PAUSE </s> -0.3010
-0.3010 PINK BAR -0.1761
-0.3010 PLACE THE -0.1498
-0.3010 PLATE </s> -0.3010
-0.9031 RECIPE </s> -0.3010
-0.4260 RECIPE FOR 0.0000
-0.3010 RIGHT BREAD 0.0000
-0.4771 SANDWICH </s> -0.3010
-0.7782 SANDWICH AND -0.2218
-0.3010 SOLID TOP -0.2553
-0.3010 STORE RECIPE -0.2430
-0.3010 SUGAR AND -0.1249
-0.4771 TEA </s> -0.3010
-0.7782 TEA TIME 0.0000
-1.2304 THE BASE -0.0792
-1.5315 THE BLUE 0.0000
-1.5315 THE COLORFUL 0.0000
-1.5315 THE CUP 0.0000
-1.2304 THE GREEN 0.0000
-1.5315 THE LEFT 0.0000
-1.5315 THE LETTUCE 0.0000
-1.5315 THE MEAT 0.0000
-1.5315 THE PINK 0.0000
-1.5315 THE PLATE 0.0000
-1.5315 THE RIGHT 0.0000
-1.5315 THE SOLID 0.0000
-1.5315 THE SUGAR 0.0000
-1.5315 THE TEA -0.1249
-1.5315 THE YELLOW 0.0000
-0.6021 THEN ATTACH 0.0000
-0.6021 THEN THE -0.2881
-0.3010 TIME </s> -0.3010
-0.5229 TOP </s> -0.3010
-1.0000 TOP ON 0.0000
-1.0000 TOP OR 0.0000
-0.3010 YELLOW BAR -0.1761
-0.3010 YOU </s> -0.3010

\3-grams:
-0.3010 <s> ATTACH TOP
-0.4771 <s> BUILD BASE
-0.7782 <s> BUILD EKET
-0.3010 <s> CANCEL </s>
-0.3010 <s> CONTINUE </s>
-0.3010 <s> GET RECIPE
-0.3010 <s> MAKE RECIPE
-0.3010 <s> PAUSE </s>
-0.3010 <s> PLACE THE
-0.6021 <s> SANDWICH </s>
-0.6021 <s> SANDWICH AND
-0.3010 <s> STORE RECIPE
-0.6021 <s> TEA </s>
-0.6021 <s> TEA TIME
-0.3010 AND TEA </s>
-0.6021 AND THE TEA
-0.6021 AND THE YELLOW
-0.3010 ATTACH TOP </s>
-0.3010 BAR AND THE
-0.3010 BAR ON THE
-0.3010 BASE THEN ATTACH
-0.3010 BLUE LEG ONTO
-0.4771 BUILD BASE </s>
-0.7782 BUILD BASE THEN
-0.3010 BUILD EKET </s>
-0.3010 COLORFUL TOP OR
-0.3010 CUP THEN THE
-0.3010 FOR ATTACH TOP
-0.6021 FOR BUILD BASE
-0.6021 FOR BUILD EKET
-0.3010 FOR SANDWICH </s>
-0.6021 FOR TEA </s>
-0.6021 FOR TEA TIME
-0.3010 FRONT OF YOU
-0.3010 GET RECIPE FOR
-0.6021 GREEN LEG </s>
-0.6021 GREEN LEG IN
-0.3010 IN FRONT OF
-0.3010 LEFT BREAD </s>
-0.3010 LEG IN FRONT
-0.3010 LEG ONTO THE
-0.3010 MAKE RECIPE </s>
-0.3010 MEAT OR THE
-0.3010 OF YOU </s>
-0.6021 ON THE BASE
-0.6021 ON THE GREEN
-0.3010 ONTO THE BASE
-0.6021 OR THE LETTUCE
-0.6021 OR THE SOLID
-0.3010 PINK BAR AND
-1.2553 PLACE THE BLUE
-1.2553 PLACE THE COLORFUL
-1.2553 PLACE THE CUP
-1.2553 PLACE THE GREEN
-1.2553 PLACE THE LEFT
-1.2553 PLACE THE MEAT
-1.2553 PLACE THE PINK
-1.2553 PLACE THE PLATE
-1.2553 PLACE THE RIGHT
-1.0792 RECIPE FOR ATTACH
-0.7782 RECIPE FOR BUILD
-1.0792 RECIPE FOR SANDWICH
-0.7782 RECIPE FOR TEA
-0.3010 RIGHT BREAD </s>
-0.3010 SANDWICH AND TEA
-0.3010 SOLID TOP ON
-0.3010 STORE RECIPE </s>
-0.3010 SUGAR AND THE
-0.3010 TEA TIME </s>
-0.3010 THE BASE </s>
-0.3010 THE BLUE LEG
-0.3010 THE COLORFUL TOP
-0.3010 THE CUP THEN
-0.3010 THE GREEN LEG
-0.3010 THE LEFT BREAD
-0.3010 THE LETTUCE </s>
-0.3010 THE MEAT OR
-0.3010 THE PINK BAR
-0.3010 THE PLATE </s>
-0.3010 THE RIGHT BREAD
-0.3010 THE SOLID TOP
-0.3010 THE SUGAR AND
-0.3010 THE TEA </s>
-0.3010 THE YELLOW BAR
-0.3010 THEN ATTACH TOP
-0.3010 THEN THE SUGAR
-0.3010 TOP ON THE
-0.3010 TOP OR THE
-0.3010 YELLOW BAR ON

\end\
